,lbda,hE,hpE,f,df,W,dW,Up,dUp,F,dF,Fcorr,dFcorr
0,0.0,0.0,1,0.0,5.820766091346741e-11,1.1110038604866967,0.0017590532331970858,0.6364656310198313,0.03817866390402833,0.0,1.442942901981523e-10,-0.26094489666291937,0.003924934496598844
1,0.005,0.005,1,0.0010592090407115506,7.637677310799809e-05,1.1101905868640376,0.0017441055787645638,0.4139835725077887,0.037567035427406796,0.0026257336972903026,0.00018933473859441866,-0.25650385998179764,0.0038841223210802933
2,0.01,0.01,1,0.0016705900281746011,0.0001515538646701077,1.1093775548736424,0.0017297396421438677,0.19239274839500808,0.037005759195445936,0.004141320893927082,0.00037569551818737273,-0.253172179446889,0.0038538029409629104
3,0.015,0.015,1,0.0018358554554342987,0.00022561238743685097,1.1085648428990806,0.001715927570165803,-0.028390588252278803,0.03649043677340012,0.004551006786582753,0.0005592834138019596,-0.25094578437858106,0.003833717240252387
4,0.02,0.02,1,0.0015565527044625327,0.000298626698050133,1.107752522296538,0.0017026438379914564,-0.24844645454916758,0.036017157388151116,0.003858627268674007,0.0007402827523583277,-0.24982099818750134,0.003823566832147183
5,0.025,0.025,1,0.0008340713159835644,0.0003706651061193751,1.10694065794448,0.0016898650024958013,-0.4678513860905298,0.03558244129377472,0.0020676269519471734,0.0009188628704429409,-0.24979452152753023,0.003823015262423588
6,0.03,0.03,1,-0.00033035022546634707,0.00044179050115449346,1.1061293087439643,0.0016775694855440803,-0.6866786694941425,0.03518318935501344,-0.0008189240136505356,0.0010951796684484944,-0.25086341654508576,0.00383169120278549
7,0.035,0.035,1,-0.0019356181603775724,0.0005120609072427279,1.1053185280737785,0.0016657373832562035,-0.9049985600776438,0.03481663832275431,-0.00479831424529403,0.001269376985593938,-0.25302509215699903,0.003849193284305514
8,0.04,0.04,1,-0.003980777547891279,0.0005815299741989303,1.1045083642045501,0.0016543502978797805,-1.1228784855291565,0.03448032127701556,-0.009868176485628452,0.001441587817464935,-0.25627729029364094,0.0038750961296877776
9,0.045,0.045,1,-0.0064650067567804115,0.0006502474128682895,1.103698860675466,0.0016433911893490364,-1.340383236397372,0.03417203272735772,-0.01602647394614775,0.001611935395110614,-0.26061807304703166,0.00390895710278045
10,0.05,0.05,1,-0.009387612328046302,0.000718259381334261,1.1028900566370279,0.001632844244001392,-1.5575751442047476,0.03388979788472225,-0.02327148757179244,0.0017805341424364301,-0.2660458106674197,0.003950323304455212
11,0.055,0.055,1,-0.012748024184912055,0.0007856088279587374,1.1020819871629453,0.0016226947582664497,-1.7745142479388107,0.033631845650153036,-0.03160180416672902,0.001947490526586007,-0.27255917035490235,0.003998738397361077
12,0.06,0.06,1,-0.01654579116752153,0.0008523357964560476,1.101274683534096,0.0016129290354358254,-1.991258449653543,0.03339658489997514,-0.041016305325060634,0.002112903814206471,-0.2801571057960903,0.00405374892458253
13,0.065,0.065,1,-0.020780576871096912,0.0009184776975546786,1.1004681734971027,0.0016035342938787692,-2.2078636598709522,0.0331825836837023,-0.05151415711379853,0.002276866744886189,-0.2888388473985848,0.004114909883663693
14,0.07,0.07,1,-0.025452155767618834,0.0009840695512418943,1.099662481500029,0.0015944985852867943,-2.424383933437497,0.032988550986855866,-0.06309480045867373,0.0024394661316687635,-0.2986038931792114,0.004181789413972135
15,0.075,0.075,1,-0.0305604095924199,0.0010491442030858072,1.0988576289073286,0.0015858107217207606,-2.640871596454218,0.03281332074769296,-0.07575794218665763,0.002600783397306159,-0.30945200026443165,0.00425397254159844
16,0.08,0.08,1,-0.036105323978322446,0.0011137325176979185,1.098053634196022,0.001577460210396121,-2.857377364874708,0.03265583784862825,-0.08950354668213416,0.002760895053844023,-0.32138317696411356,0.004331063995635703
17,0.085,0.085,1,-0.042086985320999304,0.001177863552018376,1.097250513135052,0.0015694371952840798,-3.0739504553101824,0.03251514583628591,-0.10433182811626383,0.002919873132188394,-0.33439767538238924,0.004412690160427304
18,0.09,0.09,1,-0.04850557786044618,0.001241564710773045,1.0964482789493197,0.0015617324047257812,-3.2906386885745746,0.03239037615199399,-0.12024324321207912,0.0030777855674770983,-0.3484959845313551,0.004498500260793407
19,0.095,0.095,1,-0.05536138096437604,0.0013048618861621396,1.095646942470029,0.0015543371043614028,-3.507488586449682,0.032280738681058976,-0.13723848451013593,0.00323469654536187,-0.36367882391594564,0.004588166893893718
20,0.1,0.1,1,-0.06265476660033542,0.0013677795835863144,1.0948465122726545,0.0015472430547680894,-3.724545462131772,0.032185513452695436,-0.15531847410199853,0.0033906668136779237,-0.3799471375600838,0.004681386025662151
21,0.105,0.105,1,-0.07038619698425563,0.0014303410349947754,1.0940469948037284,0.001540442473273927,-3.9418535047910552,0.032104043343861216,-0.17448435780109905,0.0035457539634290566,-0.3973020884462185,0.00477787656520605
22,0.11,0.11,1,-0.078556222393944,0.0014925683012469257,1.0932483944976492,0.0015339279994876285,-4.159455858643611,0.03203572765818493,-0.19473749972247617,0.003700012682537764,-0.41574505334235423,0.0048773796204129305
23,0.115,0.115,1,-0.08716547913685524,0.0015544823647104264,1.0924507138844692,0.0015276926641357303,-4.377394696914081,0.03198001646881901,-0.2160794772449678,0.0038534949853918582,-0.43527761799220616,0.004979657524830821
24,0.12,0.12,1,-0.0962146876621901,0.0016161032131715091,1.0916539536895158,0.0015217298608547014,-4.595711291040516,0.031936405627322466,-0.2385120763311845,0.0040062504208545225,-0.45590157264564746,0.005084492711655794
25,0.125,0.125,1,-0.10570465080805214,0.0016774499160049725,1.0908581129257486,0.0015160333206234004,-4.814446075451144,0.031904432354247995,-0.2620372871822868,0.004158326261086465,-0.4776189079084283,0.00519168649668296
26,0.13,0.13,1,-0.1156362521750598,0.0017385406934384523,1.090063188979518,0.001510597088562804,-5.033638708219087,0.03188367133803588,-0.28665730020623914,0.004309767673249066,-0.5004318108912691,0.0053010578192007095
27,0.135,0.135,1,-0.12601045461838112,0.001799392979648353,1.0892691776903711,0.001505415502860205,-5.253328127881218,0.031873731277810693,-0.3123745022796288,0.004460617875916475,-0.5243426616398128,0.005412441978455441
28,0.14,0.14,1,-0.13682829885071257,0.0018600234803379401,1.088476073425535,0.00150048317560306,-5.473552606686042,0.03187425181509,-0.33919147328451055,0.00461091828180924,-0.5493540298282616,0.005525689393662413
29,0.145,0.145,1,-0.14809090214930087,0.0019204482253736472,1.087683869149466,0.001495794975333972,-5.694349800526481,0.0318849008058859,-0.3671109829031691,0.0047607086282774385,-0.5754686717004159,0.005640664407558575
30,0.15,0.15,1,-0.1597994571604886,0.0019806826169894865,1.0868925564891012,0.0014913460111564123,-5.915756795776588,0.03190537189136395,-0.3961359876546392,0.004910027096797346,-0.602689527243349,0.005757244147061176
31,0.155,0.155,1,-0.17195523079582387,0.002040741474011591,1.086102125795037,0.001487131618242156,-6.137810153260119,0.03193538233053288,-0.42626962815820896,0.005058910422602176,-0.6310197175794054,0.005875317449538445
32,0.16,0.16,1,-0.18455956321411193,0.0021006390725044426,1.0853125661990348,0.0014831473446062142,-6.3605459495427965,0.03197467106348242,-0.45751522660996946,0.005207393995442333,-0.6604625425634562,0.005994783859301799
33,0.165,0.165,1,-0.19761386688421467,0.0021603891831955533,1.084523865668252,0.001479388939026181,-6.583999815738309,0.03202299697708795,-0.48987628445953496,0.005355511952359582,-0.6910214785733972,0.00611555269600047
34,0.17,0.17,1,-0.21111962572375553,0.002220005105996179,1.083736011056311,0.0014758523400018122,-6.808206973998978,0.0320801373495504,-0.5233564802749294,0.005503297263262427,-0.722700176482111,0.00623754219446453
35,0.175,0.175,1,-0.22507839430924292,0.002279499701901182,1.0829489881515348,0.001472533665652321,-7.033202271853298,0.0321458864525807,-0.5579596677845163,0.005650781810004488,-0.755502459800482,0.006360678714018128
36,0.18,0.18,1,-0.2394917971533861,0.002338885422520516,1.0821627817225363,0.0014694292044664305,-7.259020214540271,0.03222005429283825,-0.5936898740854961,0.0057979964595917905,-0.7894323229813821,0.006484896014265272
37,0.185,0.185,1,-0.25436152804573453,0.002398174337468161,1.0813773755612757,0.0014665354068210746,-7.485694995473608,0.032302465476607686,-0.6305512980093791,0.005944971132078753,-0.824493929875272,0.006610134593689707
38,0.19,0.19,1,-0.26968934945298884,0.0024573781598101097,1.080592752523796,0.0014638488771970333,-7.713260524971361,0.03239295818370068,-0.6685483086353822,0.006091734863652657,-0.8606916123288123,0.006736341087045238
39,0.195,0.195,1,-0.2854770919756042,0.002516508269752469,1.0798088945687092,0.0014613663670228168,-7.941750457364719,0.032491383238251466,-0.7076854439433722,0.00623831586535543,-0.8980298689182491,0.006863467717347801
40,0.2,0.2,1,-0.30172665385753383,0.0025755757367314194,1.0790257827935537,0.0014590847680835061,-8.171198216595712,0.032597603265371124,-0.7479674095985406,0.006384741577843707,-0.9365133638100079,0.00699147179826774
41,0.205,0.205,1,-0.31844000054615407,0.0026345913400509613,1.0782433974691115,0.0014570011064374716,-8.401637020407577,0.03271149192452328,-0.7893990778604776,0.006531038722548912,-0.9761469257413449,0.007120315282818543
42,0.21,0.21,1,-0.3356191642996613,0.002693565588198627,1.0774617180717403,0.0014551125367861443,-8.633099903221733,0.03283293321086245,-0.831985486609925,0.0066772333495600834,-1.016935547114432,0.007249964354399293
43,0.215,0.215,1,-0.3532662438393448,0.0027525087369572334,1.0766807233137867,0.0014534163372467675,-8.865619737784243,0.03296182081710518,-0.8757318384867758,0.00682335088252213,-1.0588843831975776,0.007380389056462457
44,0.22,0.22,1,-0.37138340404434267,0.002811430806418037,1.0759003911721292,0.0014519099044801528,-9.099229255663431,0.033098057549673196,-0.920643500133388,0.006969416160810709,-1.1019987514277376,0.007511562957311844
45,0.225,0.225,1,-0.3899728756866576,0.0028703415969908884,1.0751206989149256,0.0014505907491291596,-9.333961066673936,0.03324155479289,-0.9667260015376989,0.007115453479220713,-1.1462841308089506,0.0076434628467880504
46,0.23,0.23,1,-0.4090369552043178,0.002929250704497168,1.0743416231265246,0.001449456491524698,-9.569847677290284,0.033392232016175805,-1.0139850354709017,0.007261486625381008,-1.1917461614013483,0.007776068461846189
47,0.235,0.235,1,-0.42857800451070815,0.002988167534422831,1.0735631397306666,0.0014485048576205251,-9.806921508111799,0.033550016319690186,-1.0624264570147848,0.00740753891508712,-1.2383906438961036,0.007909362238278655
48,0.24,0.24,1,-0.4485984508382277,0.0030471013154015356,1.0727852240119304,0.0014477336751158513,-10.04521491043846,0.03371484201384401,-1.1120562831741667,0.007553633225725326,-1.2862235392716346,0.00804332908607045
49,0.245,0.245,1,-0.46910078661450605,0.0031060611119906475,1.0720078506355333,0.0014471408697328092,-10.28476018200189,0.033886650229515425,-1.1628806925700406,0.007699792027943833,-1.3352509685268976,0.008177956186099025
50,0.25,0.25,1,-0.4900875693695692,0.003165055836796953,1.0712309936654538,0.0014467244616099206,-10.525589581904114,0.03406538855488788,-1.2149060252094426,0.007846037415711882,-1.3854792124877007,0.008313232806098806
51,0.255,0.255,1,-0.5115614216723277,0.0032240942620029413,1.0704546265809656,0.0014464825617806951,-10.767735344799632,0.034251010696486214,-1.2681387823280093,0.007992391134892921,-1.4369147116821799,0.008449150134003833
52,0.26,0.26,1,-0.5335250310949942,0.003283185030339875,1.0696787222915716,0.0014464133687042701,-11.011229694362527,0.03444347616088534,-1.3225856263017697,0.00813887461044637,-1.4895640662819454,0.008585701126962785
53,0.265,0.265,1,-0.5559811502039143,0.0033423366655485403,1.0689032531505047,0.0014465151648176177,-11.256104856065207,0.034642749955168424,-1.3782533806244157,0.008285508972359367,-1.5434340361055017,0.008722880374481061
54,0.27,0.27,1,-0.5789325965755374,0.003401557582364756,1.0681281909666978,0.0014467863130794788,-11.502393069304787,0.03484880230327138,-1.4351490299468932,0.008432315080400423,-1.598531540680545,0.008860683974295666
55,0.275,0.275,1,-0.6023822528362093,0.0034608560960624644,1.0673535070154236,0.0014472252534787758,-11.750126598894582,0.03506160837614624,-1.4932797201760453,0.008579313547776331,-1.6548636593623145,0.008999109419723778
56,0.28,0.28,1,-0.6263330667244666,0.003520240431583695,1.0665791720476343,0.0014478304994805337,-11.999337745948537,0.03528114803377344,-1.5526527586290395,0.008726524763764952,-1.7124376315047805,0.009138155497347545
57,0.285,0.285,1,-0.6507880511747963,0.003579718732281098,1.0658051562980884,0.0014486006343835765,-12.250058858170291,0.03550740557693607,-1.6132756142410014,0.008873968915387585,-1.771260856682282,0.00927782219401013
58,0.29,0.29,1,-0.675750284421456,0.003639299068295719,1.0650314294923637,0.0014495343075681482,-12.502322339566263,0.0357403695070149,-1.675155917822383,0.009021666008177102,-1.8313408949583558,0.009418110612197
59,0.295,0.295,1,-0.7012229101213574,0.003698989444589473,1.0642579608529341,0.0014506302306095111,-12.756160659589739,0.03598003229217003,-1.738301462363584,0.009169635886090115,-1.8926854671996716,0.009559022892966092
60,0.3,0.3,1,-0.7272091374948264,0.0037587978086491636,1.0634847191043684,0.0014518871732385444,-13.011606361725569,0.036226390138105816,-1.802720203383891,0.009317898250604903,-1.9553024554322675,0.009700562145674104
61,0.305,0.305,1,-0.7537122414831305,0.0038187320578761163,1.0627116724778007,0.0014533039591306735,-13.268692071521315,0.03647944276204418,-1.8684202593219807,0.00946647267904,-2.0191999032376664,0.009842732383816059
62,0.31,0.31,1,-0.7807355629215706,0.0038788000466724475,1.0619387887149583,0.001454879461507011,-13.527450504062585,0.036739193168408325,-1.9354099119650068,0.009615378642120743,-2.084386016186545,0.009985538466363344
63,0.315,0.315,1,-0.8082825087272365,0.003939009593233819,1.0611660350717225,0.0014566125985335879,-13.787914470897476,0.03700564742478175,-2.0036976069140384,0.009764635520818226,-2.150869162307671,0.010128986044044044
64,0.32,0.32,1,-0.8363565521000265,0.003999368486054355,1.060393378321617,0.0014585023285060073,-14.050116886399564,0.037278814436895916,-2.073291954082378,0.009914262622474714,-2.2186578725895445,0.010273081510060745
65,0.325,0.325,1,-0.8649612327360039,0.004059884490148679,1.0596207847592827,0.0014605476448120154,-14.314090773567244,0.037558705721394255,-2.144201728224466,0.010064279196227785,-2.287760841512579,0.010417831954791368
66,0.33,0.33,1,-0.8941001570518736,0.004120565352992897,1.0588482202042666,0.001462747570663682,-14.57986926924876,0.037845335175155224,-2.216435869492343,0.010214704447737795,-2.3581869276095837,0.010563245124059878
67,0.335,0.335,1,-0.9237769984193243,0.004181418810184494,1.058075650005335,0.0014651011535968866,-14.847485628776809,0.03813871884017314,-2.29000348401658,0.010365557553218515,-2.429945154051916,0.010709329380602034
68,0.34,0.34,1,-0.9539954974082736,0.0042424525908192744,1.0573030390455362,0.0014676074597360146,-15.116973230006337,0.03843887466285439,-2.364913844509269,0.010516857672766314,-2.5030447092594628,0.01085609366838861
69,0.345,0.345,1,-0.9847594620374878,0.004303674422580683,1.0565303517483393,0.0014702655678277177,-15.388365576728404,0.03874582224689441,-2.4411763908852984,0.01066862396297639,-2.5774949475314326,0.011003547479495685
70,0.35,0.35,1,-1.0160727680315063,0.004365092036535654,1.0557575520851112,0.0014730745630495195,-15.661696301446227,0.03905958259893276,-2.5188007308992613,0.010820875588831474,-2.6533053896959284,0.011151700823244515
71,0.355,0.355,1,-1.0479393590825055,0.004426713171628818,1.0549846035842356,0.0014760335306008609,-15.9369991674901,0.03938017786594588,-2.5977966407946003,0.01097363173484275,-2.730485723775652,0.01130056419735524
72,0.36,0.36,1,-1.0803632471157467,0.004488545578864911,1.0542114693421927,0.0014791415490936126,-16.214308070443792,0.03970763106426411,-2.6781740659616444,0.0111269116154179,-2.8090458056671443,0.011450148560884457
73,0.365,0.365,1,-1.1133485125570939,0.0045505970251676605,1.0534381120369156,0.0014823976837545067,-16.49365703885563,0.04004196579902959,-2.759943121600773,0.011280734484427096,-2.8889956598305755,0.011600465308734858
74,0.37,0.37,1,-1.146899304601403,0.004612875296901628,1.0526644939437748,0.0014858009794630454,-16.77508023420738,0.04038320597420548,-2.843114093387741,0.011435119643933503,-2.970345479987965,0.011751526247546936
75,0.375,0.375,1,-1.1810198414798947,0.004675388203041487,1.0518905769545142,0.0014893504536495719,-17.058611950104307,0.04073137549254796,-2.9276974381364855,0.01159008645204978,-3.053105629825952,0.01190334357279674
76,0.38,0.38,1,-1.2157144107251643,0.004738143577971914,1.0511163225994973,0.0014930450890806005,-17.344286610654777,0.0410864979454753,-3.0137037844560735,0.011745654329878896,-3.1372866437006524,0.012055929846941232
77,0.385,0.385,1,-1.2509873694320603,0.004801149283899835,1.0503416920736073,0.0014968838265649292,-17.632138768000857,0.04144859629280884,-3.1011439333974082,0.011901842767493979,-3.2228992273410713,0.012209297978465289
78,0.39,0.39,1,-1.2868431445127158,0.004864413212859046,1.0495666462661815,0.0015008655576175714,-17.92220309896244,0.04181769253251298,-3.1900288590854413,0.01205867132890768,-3.3099542585477635,0.01236346120169815
79,0.395,0.395,1,-1.323286232943774,0.004927943288285896,1.0487911457952999,0.001504989117120213,-18.214514400749763,0.0421938073607224,-3.2803697093320348,0.01221615965597824,-3.3984627878826896,0.012518433057276367
80,0.4,0.4,1,-1.3603212020042008,0.0049917474661443735,1.0480151510467692,0.0015092532760231311,-18.509107585708193,0.04257695982247038,-3.3721778062254866,0.012374327471198513,-3.4884360393471434,0.012674227373143547
81,0.405,0.405,1,-1.397952689501274,0.005055833735576474,1.0472386222182108,0.0015136567341357237,-18.80601767504122,0.042967166953900286,-3.4654646466907506,0.012533194579308212,-3.579885411042809,0.012830858245982566
82,0.41,0.41,1,-1.4361854039829431,0.00512021011905435,1.0464615193685063,0.0015181981130555978,-19.10527979146832,0.04336444341642477,-3.5602419030158656,0.012692780867671073,-3.672822475812126,0.012988340022986886
83,0.415,0.415,1,-1.4750241249342793,0.0051848846720093265,1.0456838024729538,0.0015228759492886654,-19.406929150770964,0.043768801124216876,-3.656521423338946,0.012853106305355202,-3.7672589818532187,0.013146687283883646
84,0.42,0.42,1,-1.5144737029555895,0.005249865481912206,1.044905431484446,0.0015276886876179952,-19.71100105216948,0.04418024886579115,-3.754315232089721,0.013014190940853201,-3.8632068533041948,0.013305914823127213
85,0.425,0.425,1,-1.5545390599201099,0.005315160666780162,1.0441263664009384,0.0015326346747764896,-20.017530867483217,0.04459879192124666,-3.8536355303804477,0.01317605489838081,-3.960678190792347,0.01346603763218881
86,0.43,0.43,1,-1.5952251891083495,0.005380778373084002,1.0433465673395075,0.0015377121534836773,-20.326554029014517,0.04502443167648784,-3.954494696338945,0.0133387183726891,-4.059685271941805,0.013627070881869766
87,0.435,0.435,1,-1.6365371553167858,0.005446726773031195,1.042565994617124,0.0015429192569064707,-20.63810601610767,0.04545716523617787,-4.056905285378045,0.013502201622329223,-4.160240551834317,0.01378902990457387
88,0.44,0.44,1,-1.678480094938024,0.005513014061200136,1.0417846088384897,0.0015482540036037948,-20.952222340319253,0.04589698503706322,-4.160880030394302,0.0136665249613089,-4.262356663416921,0.013951930176474189
89,0.445,0.445,1,-1.72105921600963,0.005579648450501784,1.0410023709909826,0.001553714293014518,-21.268938529144947,0.04634387846383813,-4.266431841889051,0.01383170874908148,-4.366046417849807,0.014115787299514352
90,0.45,0.45,1,-1.7642797982285199,0.005646638167446127,1.0402192425469035,0.001559297901548662,-21.58829010824377,0.04679782746930522,-4.373573808004076,0.013997773378811735,-4.471322804787173,0.014280616983185251
91,0.455,0.455,1,-1.808147192928148,0.005713991446693463,1.039435185573086,0.0015650024793370857,-21.91031258210012,0.04725880820126292,-4.482319194465062,0.014164739263868692,-4.578198992584514,0.014446435026022612
92,0.46,0.46,1,-1.8526668230148644,0.005781716524869931,1.0386501628478841,0.001570825547695115,-22.23504141306617,0.047726790638118965,-4.5926814444238255,0.014332626822494617,-4.686688328423475,0.014613257296765795
93,0.465,0.465,1,-1.8978441828603998,0.005849821633632322,1.0378641379855815,0.001576764497350738,-22.562511998720865,0.04820173823586521,-4.704674178191792,0.014501456460612983,-4.796804338346939,0.014781099715127633
94,0.47,0.47,1,-1.9436848381469378,0.005918314991966399,1.0370770755681065,0.0015828165874829077,-22.89275964749055,0.04868360758840979,-4.818311192855935,0.014671248552736318,-4.908560727195404,0.014949978232115496
95,0.475,0.475,1,-1.9901944256612207,0.005987204797708814,1.0362889412839134,0.0015889789456129907,-23.22581955247159,0.04917234810381863,-4.933606461768375,0.014842023420949422,-5.021971378435621,0.01511990880985344
96,0.48,0.48,1,-2.0373786530338904,0.00605649921828403,1.035499702073913,0.0015952485683827533,-23.561726763397473,0.049667901698835226,-5.050574133900212,0.015013801311946576,-5.137050353871893,0.015290907400846682
97,0.485,0.485,1,-2.0852432984205915,0.0061262063806524466,1.0347093262841307,0.0016016223232503564,-23.90051615669593,0.050170202513873816,-5.169228533051,0.0151866023721134,-5.25381189323078,0.015462989926634755
98,0.49,0.49,1,-2.1337942101204916,0.0061963343604697395,1.0339177838247848,0.0016080969511229866,-24.242222403585032,0.05067917665064715,-5.289584156903072,0.015360446620653292,-5.372270413607798,0.015636172255776754
99,0.495,0.495,1,-2.183037306128522,0.006266891170461471,1.0331250463354542,0.0016146690699408387,-24.586879936150396,0.05119474193455439,-5.4116556759115655,0.015535353920768614,-5.4924405087662596,0.015810470181110772
100,0.5,0.5,1,-2.2329785736171264,0.006337884748022364,1.0323310873558067,0.001621335179217206,-24.934522911367196,0.051716807703696265,-5.5354579320196935,0.015711343948919813,-5.614336948276639,0.015985899396232368
101,0.505,0.505,1,-2.2836240683433466,0.0064093229420540765,1.031535882501383,0.0016280916655269197,-25.2851851730164,0.052245274626163477,-5.661005937188948,0.015888436162196828,-5.737974676485036,0.016162475471131997
102,0.51,0.51,1,-2.3349799139768095,0.006481213499060648,1.030739409643831,0.0016349348089321478,-25.638900211458278,0.05278003454697637,-5.7883148717331965,0.016066649763850298,-5.863368811298324,0.016340213826936126
103,0.515,0.515,1,-2.387052301344637,0.0065535640485268306,1.0299416490949502,0.001641860790317302,-25.995701121232457,0.05332097036586102,-5.917400082446851,0.016246003667045088,-5.990534642774714,0.016519129709694054
104,0.52,0.52,1,-2.4398474875883878,0.006626382087609005,1.0291425837936838,0.001648865699598153,-26.355620556454397,0.053867955946586374,-6.048277080514964,0.016426516456909707,-6.119487631505585,0.016699238163154377
105,0.525,0.525,1,-2.4933717952288976,0.006699674965174973,1.0283421994953739,0.0016559455447600075,-26.71869068399033,0.05442085605834243,-6.180961539195007,0.016608206350971648,-6.25024340677676,0.016880554000477048
106,0.53,0.53,1,-2.5476316111344453,0.006773449865234774,1.0275404849622327,0.0016630962616668266,-27.08494313439867,0.054979526348967786,-6.315469291258996,0.016791091158083107,-6.3828177644954085,0.017063091774830983
107,0.535,0.535,1,-2.6026333853875556,0.006847713789808936,1.026737432154205,0.001670313724575254,-27.45440895063024,0.05554381334985877,-6.451816326184348,0.016975188235952086,-6.517226664869033,0.017246865748825196
108,0.54,0.54,1,-2.6583836300463712,0.006922473541288622,1.0259330364190435,0.0016775937572763846,-27.82711853449993,0.056113554511343186,-6.5900187870833715,0.01716051444741398,-6.653486229823612,0.0174318898627351
109,0.545,0.545,1,-2.7148889177955304,0.006997735704345009,1.0251272966806058,0.0016849321447782205,-28.203101590937322,0.05668857826725939,-6.730092967358856,0.017347086115585695,-6.791612740146004,0.01761817770148108
110,0.55,0.55,1,-2.772155880482531,0.007073506627451947,1.0243202156241358,0.0016923246454355813,-28.582387070051453,0.05726870412680175,-6.872055307075773,0.0175349189780611,-6.931622632337617,0.017805742460330738
111,0.555,0.555,1,-2.8301912075350373,0.007149792404090332,1.0235117998773493,0.001699767003422939,-28.965003107044396,0.05785374279108153,-7.015922389037858,0.0177240281403175,-7.07353249516525,0.017994596909300192
112,0.56,0.56,1,-2.8890016442548925,0.007226598853706823,1.0227020601860652,0.0017072549614426573,-29.350976960026586,0.05844349629150569,-7.1617109345585295,0.017914428028513105,-7.217359065895491,0.01818475335624094
113,0.565,0.565,1,-2.9485939899845057,0.007303931502503598,1.0218910115830173,0.0017147842735535368,-29.740334945803426,0.05903775814645429,-7.30943779891545,0.018106132341865644,-7.363119226198591,0.018376223608608817
114,0.57,0.57,1,-3.008975096142036,0.007381795564138525,1.0210786735485655,0.0017223507180020858,-30.133102373712973,0.05963631353224785,-7.459119966479828,0.01829915400480894,-7.5108299977097595,0.018569018933922977
115,0.575,0.575,1,-3.0701518641209375,0.007460195920418418,1.0202650701619178,0.001729950109935826,-30.529303477609503,0.06023893946406481,-7.61077454550948,0.01849350511913231,-7.660508537233426,0.01876315001893679
116,0.58,0.58,1,-3.132131243050708,0.007539137102068463,1.0194502302414299,0.0017375783138793054,-30.9289613461131,0.06084540498185357,-7.764418762597825,0.01868919691630881,-7.812172131579029,0.018958626927556028
117,0.585,0.585,1,-3.1949202274152615,0.007618623269663525,1.0186341874726583,0.001745231255853971,-31.33209785124849,0.06145547133616475,-7.92006995676993,0.018886239710224743,-7.965838192016118,0.01915545905755716
118,0.59,0.59,1,-3.258525854525926,0.007698658194804751,1.0178169805226833,0.0017529049350266414,-31.73873357563059,0.06206889216843697,-8.07774557321818,0.019084642850517284,-8.121524248337556,0.019353655096171023
119,0.595,0.595,1,-3.3229552018460584,0.007779245241625476,1.0169986531394284,0.001760595434779584,-32.14888773835544,0.06268541368006611,-8.237463156670115,0.01928441467672842,-8.279247942520074,0.019553222974618145
120,0.6,0.6,1,-3.3882153841653704,0.007860387348708347,1.0161792542345038,0.0017682989331006449,-32.56257811979005,0.06330477478475349,-8.399240344383708,0.019485562473478248,-8.43902702197367,0.019754169821699585
121,0.605,0.605,1,-3.454313550621304,0.007942087011490236,1.0153588379482903,0.0017760117122042126,-32.97982098546352,0.06392670723832311,-8.563094858763474,0.01968809242684756,-8.600879332369868,0.019956501916560152
122,0.61,0.61,1,-3.5212568815663126,0.00802434626523083,1.0145374636960698,0.0017837301673070721,-33.40063100928076,0.06455093574082546,-8.729044499594602,0.01989200958215765,-8.764822810042853,0.02016022464076623
123,0.615,0.615,1,-3.5890525852797843,0.008107166668612375,1.0137151961938091,0.0017914508144963334,-33.82502119631049,0.06517717800573211,-8.897107135891954,0.020097317803314838,-8.93087547395666,0.02036534242985366
124,0.62,0.62,1,-3.657707894524032,0.00819054928803398,1.012892105462655,0.001799170297645553,-34.253002805402616,0.06580514479181147,-9.067300697362507,0.020304019733876688,-9.099055417234368,0.020571858724519027
125,0.625,0.625,1,-3.7272300629441073,0.008274494682655719,1.0120682668108922,0.0018068853943542784,-34.68458527192054,0.06643453989386709,-9.239643165480654,0.02051211675997699,-9.269380798245342,0.02077977592164638
126,0.63,0.63,1,-3.797626361312476,0.008359002890241024,1.0112437607925813,0.0018145930209052816,-35.119776130887416,0.06706506008935045,-9.41415256417891,0.020721608975229684,-9.44186983125082,0.020989095325376014
127,0.635,0.635,1,-3.8689040736190066,0.00844407341383537,1.0104186731418716,0.001822290236259454,-35.55858094086098,0.06769639503910566,-9.590846950155159,0.020932495147705843,-9.616540776606127,0.021199817098433677
128,0.64,0.64,1,-3.9410704930086258,0.008529705209312686,1.009593094682351,0.0018299742451283697,-36.00100320887199,0.06832822714155123,-9.76974440280229,0.021144772689061807,-9.793411930523455,0.02141194021395641
129,0.645,0.645,1,-4.014132917568919,0.008615896673809702,1.0087671212108087,0.0018376424001917858,-36.44704431677266,0.06896023134121174,-9.950863013765822,0.02135843762586841,-9.972501614398825,0.0216254624080568
130,0.65,0.65,1,-4.088098645970733,0.008702645635058763,1.0079408533549614,0.0018452922035515087,-36.89670344935317,0.06959207489399591,-10.134220876137162,0.021573484573167476,-10.153828163709445,0.021840380133377493
131,0.655,0.655,1,-4.162974972966232,0.008789949341621885,1.00711439640483,0.0018529213075377375,-37.349977524602835,0.07022341709354114,-10.31983607329346,0.021789906710262475,-10.33740991649114,0.022056688513896285
132,0.66,0.66,1,-4.238769184748445,0.008877804454017141,1.006287860117618,0.0018605275150090723,-37.806861126492365,0.0708539089646248,-10.50772666739415,0.0220076957587212,-10.523265201405236,0.02227438130124231
133,0.665,0.665,1,-4.315488554178247,0.008966207036721205,1.005461358496142,0.0018681087793116274,-38.267346440669456,0.07148319293194771,-10.69791068754882,0.022226841962550446,-10.71141232540918,0.02249345083278677
134,0.67,0.67,1,-4.393140335884894,0.009055152551023812,1.0046350095410381,0.0018756632040841227,-38.73142319345409,0.07211090247444286,-10.890406117671663,0.022447334070482494,-10.901869561046293,0.02271388799177095
135,0.675,0.675,1,-4.471731761247211,0.009144635848702575,1.0038089349770303,0.0018831890431177363,-39.19907859453758,0.07273666177759483,-11.085230884040051,0.02266915932029527,-11.094655133372461,0.022935682169731256
136,0.68,0.68,1,-4.551270033263069,0.009234651166480846,1.0029832599539557,0.0018906847004952962,-39.670297283766516,0.0733600853982718,-11.28240284257619,0.022892303425073608,-11.289787206540014,0.02315882123147186
137,0.685,0.685,1,-4.631762321316353,0.00932519212122867,1.0021581127231913,0.0018981487312528934,-40.14506128241227,0.07398077795879868,-11.481939765874658,0.023116750561312634,-11.48728387006279,0.02338329148283438
138,0.69,0.69,1,-4.713215755850138,0.009416251705862848,1.0013336242904485,0.0019055798428153656,-40.6233499492991,0.07459833388894878,-11.683859329997443,0.0233424833587542,-11.687163124785947,0.023609077641498784
139,0.695,0.695,1,-4.79563742295672,0.009507822285903949,1.0005099280461094,0.001912976897468158,-41.10513994216511,0.07521233723640444,-11.888179101062851,0.023569482891851862,-11.88944286858947,0.02383616281104308
140,0.7,0.7,1,-4.879034358895318,0.009599895596649106,0.9996871593742863,0.0019203389161289626,-41.59040518461319,0.07582236156796753,-12.094916521655138,0.023797728672762336,-12.094140881854733,0.02406452845847844
141,0.705,0.705,1,-4.963413544549031,0.009692462740925318,0.9988654552421551,0.0019276650836852409,-42.07911683898956,0.07642796998519173,-12.304088897083536,0.024027198645776068,-12.301274812726323,0.02429415439546557
142,0.71,0.71,1,-5.048781899833168,0.00978551418739384,0.9980449537712023,0.0019349547561553363,-42.57124328550833,0.07702871527922722,-12.515713381520742,0.024257869183113883,-12.51086216220294,0.024525018763404682
143,0.715,0.715,1,-5.135146278068406,0.009879039769388026,0.997225793792084,0.0019422074699228216,-43.06675010791773,0.07762414025053652,-12.729806964054227,0.024489715082046025,-12.722920269094661,0.024757098022588894
144,0.72,0.72,1,-5.222513460331474,0.009973028684278688,0.9964081143851587,0.001949422953278582,-43.565600085973074,0.07821377821948455,-12.946386454681809,0.02472270956331893,-12.937466294882883,0.024990366945597243
145,0.725,0.725,1,-5.310890149797904,0.010067469493375421,0.9955920544086224,0.001956601140483515,-44.06775319495378,0.07879715375374784,-13.165468470287607,0.024956824270910616,-13.154517208523657,0.025224798615099114
146,0.73,0.73,1,-5.400282966091108,0.010162350122393351,0.9947777520165492,0.001963742188543239,-44.57316661242734,0.07937378363821837,-13.3870694206336,0.02519202927318771,-13.37408977123519,0.025460364426244886
147,0.735,0.735,1,-5.490698439652315,0.010257657862530519,0.9939653441690245,0.0019708464968546083,-45.081794732427824,0.07994317811193007,-13.61120549440298,0.02542829306557626,-13.596200521311015,0.025697034093808982
148,0.74,0.74,1,-5.5821430061471435,0.010353379372228829,0.9931549661368112,0.001977914729851848,-45.593589187180854,0.0805048423953844,-13.83789264533428,0.025665582574927036,-13.820865759003805,0.025934775664267398
149,0.745,0.745,1,-5.674623000923246,0.010449500679710707,0.9923467510028919,0.001984947842743834,-46.10849887646215,0.08105827852967942,-14.067146578482092,0.02590386316580381,-14.04810153152146,0.026173555532989654
150,0.75,0.75,1,-5.768144653535122,0.010546007186413239,0.9915408291634807,0.0019919471103940815,-46.6264700046402,0.0816029875467217,-14.298982736644335,0.026143098648996423,-14.27792361818188,0.026413338466745453
151,0.755,0.755,1,-5.8627140823513635,0.010642883671466367,0.9907373278308612,0.001998914159350852,-47.14744612541148,0.08213847198714375,-14.53341628699384,0.026383251292622048,-14.510347515770139,0.026654087631739605
152,0.76,0.76,1,-5.958337289259925,0.01074011429739082,0.9899363705406766,0.0020058510029940056,-47.67136819419146,0.0826642387795011,-14.770462107952941,0.026624281836250114,-14.745388424143409,0.02689576462741267
153,0.765,0.765,1,-6.055020154486449,0.01083768261721749,0.989138076666083,0.002012760079715868,-48.19817462808108,0.08317980249125194,-15.010134776348334,0.026866149508550926,-14.98306123212705,0.02713832952626679
154,0.77,0.77,1,-6.152768431541611,0.010935571583260023,0.9883425609412234,0.0020196442940103466,-48.72780137329302,0.08368468895842787,-15.25244855488575,0.027108812049042575,-15.223380503747757,0.02738174092001049
155,0.775,0.775,1,-6.251587742311321,0.011033763557795413,0.9875499329964278,0.002026507060297456,-49.26018197987035,0.08417843929739594,-15.497417379978785,0.027352225734567616,-15.466360464844358,0.027625955972340282
156,0.78,0.78,1,-6.35148357230511,0.011132240325936519,0.9867602969074046,0.002033352349265791,-49.795247683498616,0.08466061429851462,-15.745054849969854,0.027596345411203538,-15.71201499010016,0.02787093047872108
157,0.785,0.785,1,-6.452461266076387,0.011230983111000762,0.9859737507606597,0.0020401847364739183,-50.33292749416853,0.08513079919795563,-15.995374213777199,0.02784112453236106,-15.960357590536685,0.028116618933556343
158,0.79,0.79,1,-6.554526022828298,0.011329972592702443,0.9851903862372261,0.002047009452910008,-50.873148291413,0.08558860882052717,-16.248388360002007,0.02808651520388214,-16.21140140150844,0.02836297460518166
159,0.795,0.795,1,-6.657682892217757,0.011429188928511837,0.9844102882165878,0.002053832437174743,-51.415834925807374,0.08603369308326539,-16.50410980652678,0.028332468236988227,-16.465159171234923,0.02860994961914984
160,0.8,0.8,1,-6.761936770370781,0.011528611778542966,0.9836335344026917,0.0020606603889174757,-51.960910326393176,0.08646574284677763,-16.762550690637532,0.028578933209975996,-16.721643249907626,0.028857495050317324
161,0.805,0.805,1,-6.867292396119604,0.011628220334339474,0.9828601949735717,0.0020675008231300055,-52.50829561365288,0.08688449609886395,-17.023722759695733,0.028825858539576296,-16.98086557940218,0.029105561024273464
162,0.81,0.81,1,-6.973754347473239,0.011727993351940327,0.9820903322561055,0.0020743621248799846,-53.05791021764449,0.087289744453299,-17.287637362389017,0.029073191562922568,-17.242837683628967,0.029354096828694273
163,0.815,0.815,1,-7.081327038331059,0.01182790918960787,0.9813240004271281,0.002081253604049537,-53.609672000880565,0.08768133994516461,-17.554305440584255,0.029320878631077144,-17.50757065954926,0.029603051035227864
164,0.82,0.82,1,-7.190014715448767,0.01192794585060475,0.9805612452419147,0.002088185549636779,-54.16349738552273,0.08805920210365853,-17.82373752180635,0.02956886521507331,-17.77507516888335,0.02985237163255577
165,0.825,0.825,1,-7.2998214556645475,0.012028081031402115,0.9798021037910091,0.0020951692831758044,-54.719301484441004,0.08842332528315039,-18.095943712361983,0.02981709602542144,-18.04536143053276,0.03010200617129333
166,0.83,0.83,1,-7.410751163393703,0.01212829217569623,0.9790466042858562,0.002102217210836828,-55.276998235691124,0.08877378623402628,-18.37093369112891,0.030065515146013837,-18.318439213738795,0.030351901921421908
167,0.835,0.835,1,-7.5228075683969635,0.012228556534602319,0.9782947658738544,0.002109342873785203,-55.836500539940275,0.08911075189603385,-18.648716704023716,0.03031406618334266,-18.594317831992345,0.030602006042960598
168,0.84,0.84,1,-7.6359942238289005,0.012328851233384645,0.9775465984828972,0.0021165609963980214,-56.397720400378574,0.08943448739885972,-18.9293015591639,0.030562692431920963,-18.8730061377115,0.030852265770609198
169,0.845,0.845,1,-7.750314504570605,0.012429153345068646,0.9768021026955057,0.002123887531975154,-56.96056906465243,0.08974536425687106,-19.21269662273467,0.03081133705676398,-19.154512517697988,0.03110262861310578
170,0.85,0.85,1,-7.86577160585005,0.012529439971269138,0.9760612696523118,0.0021313397056198368,-57.524957168349076,0.09004386874797497,-19.49890981556886,0.031059943293758798,-19.43884488938075,0.03135304256806222
171,0.855,0.855,1,-7.9823685421535675,0.012629688330556402,0.9753240809844758,0.0021389360540197966,-58.0907948795802,0.09033061046949417,-19.78794861044857,0.03130845466872007,-19.726010697854555,0.031603456353059584
172,0.86,0.86,1,-8.100108146429132,0.012729875854668853,0.9745905087745096,0.0021466964619211567,-58.6579920441996,0.09060633106725655,-20.079820030130083,0.03155681523589709,-20.016016913714363,0.031853819653800006
173,0.865,0.865,1,-8.218993069583064,0.012829980292873407,0.9738605155446737,0.002154642195160198,-59.22645833121457,0.09087191313719656,-20.374530646096265,0.031804969836678666,-20.308870031687782,0.03210408339014211
174,0.87,0.87,1,-8.339025780269823,0.012929979824766947,0.9731340542720052,0.002162795930199942,-59.796103377945684,0.09112838930159554,-20.672086578035437,0.0320528643792231,-20.604576070062684,0.03235420000087364
175,0.875,0.875,1,-8.460208564973989,0.013029853181811067,0.972411068428909,0.002171181780211493,-60.36683693450374,0.0913769514643635,-20.97249349404462,0.032300446139737614,-20.90314057090541,0.03260412374811377
176,0.88,0.88,1,-8.582543528382356,0.013129579777895079,0.9716914920479697,0.0021798253178380673,-60.938569007159785,0.09161896025107384,-21.27575661155194,0.0325476640861384,-21.204568601061283,0.03285381104228812
177,0.885,0.885,1,-8.706032594044263,0.013229139849231908,0.9709752498096765,0.0021887535948890125,-61.51121000019026,0.09185595463982667,-21.581880698953558,0.032794469224846544,-21.508864753929704,0.0331032207886758
178,0.89,0.89,1,-8.83067750531562,0.013328514603908008,0.9702622571514427,0.002197995159322188,-62.08467085578779,0.09208966178749214,-21.890870077953856,0.033040814971515876,-21.816033151998692,0.033352314756604454
179,0.895,0.895,1,-8.956479826583067,0.013427686381433919,0.9695524203963385,0.002207580069994684,-62.65886319163232,0.09232200705297303,-22.20272862660009,0.0332866575465519,-22.126077450126207,0.033601057972457125
180,0.9,0.9,1,-9.083440944762904,0.013526638822676582,0.9688456368997808,0.0022175399097783353,-63.23369943572287,0.09255512421363266,-22.517459782998177,0.03353195639636671,-22.439000839550683,0.03384941913775951
181,0.905,0.905,1,-9.211562071068917,0.013625357050598193,0.9681417952123298,0.002227907797756485,-63.809092958074984,0.09279136586329371,-22.835066549695043,0.03377667464142288,-22.754806052611528,0.03409737107373965
182,0.91,0.91,1,-9.340844243042037,0.013723827862282137,0.9674407752567232,0.002238718401337252,-64.3849581988838,0.09303331396961921,-23.155551498710075,0.03402077955225745,-23.073495368157506,0.0343448911938923
183,0.915,0.915,1,-9.47128832683522,0.013822039932791458,0.9667424485171524,0.0022500079492231415,-64.96121079276438,0.09328379055516518,-23.478916777199228,0.03426424305483833,-23.395070617621528,0.034591962006237306
184,0.92,0.92,1,-9.60289501974403,0.013919984031484265,0.9660466782387896,0.0022618142462784967,-65.5377676886664,0.09354586844983953,-23.80516411372825,0.03450704226680094,-23.71953319173321,0.03483857164713765
185,0.925,0.925,1,-9.73566485297465,0.014017653251500001,0.9653533196355003,0.0022741766914165674,-66.11454726506732,0.09382288204288641,-24.134294825134432,0.03474916006633473,-24.04688404784335,0.03508471444873597
186,0.93,0.93,1,-9.869598194639215,0.014115043253229376,0.9646622201036213,0.0022871362996940334,-66.6914694400453,0.09411843794027577,-24.466309823951942,0.03499058569573475,-24.37712371782992,0.035330391542266595
187,0.935,0.935,1,-10.004695252967235,0.01421215252270087,0.9639732194397955,0.0023007357298389284,-67.26845577581845,0.09443642540881447,-24.80120962637279,0.03523131540193066,-24.710252316552406,0.035575611499730285
188,0.94,0.94,1,-10.140956079722699,0.014308982645933974,0.9632861500606301,0.0023150193184511615,-67.84542957735196,0.0947810264621328,-25.138994360717682,0.03547135311659663,-25.046269550822927,0.0358203910166281
189,0.945,0.945,1,-10.278380573813001,0.014405538600455,0.9626008372221487,0.0023300331220940367,-68.42231598461257,0.09515672541735222,-25.479663776382388,0.035710711178806503,-25.385174728854427,0.036064755638697356
190,0.95,0.95,1,-10.416968485077582,0.014501829065313644,0.9619170992368854,0.002345824968439612,-68.99904205806239,0.09556831772579767,-25.823217253229632,0.035949411103551515,-25.726966770150277,0.036308740535807224
191,0.955,0.955,1,-10.556719418241718,0.014597866751104272,0.9612347476865563,0.002362444517535537,-69.57553685697525,0.09602091785860697,-26.16965381139036,0.036187484399848945,-26.07164421579367,0.036552391326410485
192,0.96,0.96,1,-10.697632837020818,0.014693668751660968,0.9605535876282058,0.002379943334126427,-70.15173151016845,0.09651996601084963,-26.518972121438114,0.03642497344257893,-26.419205239094893,0.03679576495614887
193,0.965,0.965,1,-10.839708068358984,0.014789256919280933,0.9598734177918301,0.0023983749717843496,-70.72755927873895,0.09707123337802008,-26.87117051489625,0.03666193240264726,-26.769647656550866,0.03703893063441533
194,0.97,0.97,1,-10.982944306786475,0.01488465826551639,0.9591940307674253,0.0024177950693846325,-71.3029556104143,0.09768082575972123,-27.226246995039883,0.036898428240531175,-27.12296893907329,0.03728197083284007
195,0.975,0.975,1,-11.127340618877248,0.014979905389776595,0.9585152131795659,0.0024382614602042763,-71.87785818512988,0.09835518525935308,-27.584199247945964,0.03713454176876542,-27.479166223433605,0.03752498234981043
196,0.98,0.98,1,-11.272895947789696,0.015075036938185416,0.9578367458475471,0.002459834293624594,-72.4522069514711,0.09910108987885402,-27.945024653749567,0.037370368789430425,-27.83823632387755,0.03776807744523146
197,0.985,0.985,1,-11.41960911787123,0.015170098095354544,0.9571584039293407,0.002482576169092971,-73.02594415363794,0.09992565085572322,-28.308720298058436,0.037606021313236974,-28.20017574385641,0.03801138504978262
198,0.99,0.99,1,-11.5674788393076,0.015265141111950545,0.9564799570475039,0.0025065522816477117,-73.5990143486239,0.10083630765757048,-28.675282983478475,0.03784162886734225,-28.564980687822572,0.038255052052922914
199,0.995,0.995,1,-11.716503712796296,0.015360225871157304,0.9558011693954483,0.002531830577941887,-74.17136441332835,0.1018408206372364,-29.04470924119888,0.0380773398995859,-28.93264707303357,0.03849924467381568
200,1.0,1.0,1,-11.866682234224752,0.01545542049736707,0.9551217998224656,0.002558481921330184,-74.74294354137515,0.10294726145820267,-29.416995342589246,0.03831332328740896,-29.303170541312372,0.03874414991921053
